function [y1] = myNeuralNetworkFunction(x1)
%MYNEURALNETWORKFUNCTION neural network simulation function.
%
% Generated by Neural Network Toolbox function genFunction, 22-May-2017 16:35:31.
%
% [y1] = myNeuralNetworkFunction(x1) takes these arguments:
%   x = Qx80 matrix, input #1
% and returns:
%   y = Qx5 matrix, output #1
% where Q is the number of samples.

%#ok<*RPMT0>

% ===== NEURAL NETWORK CONSTANTS =====

% Input 1
x1_step1.xoffset = [0.0201403278833333;0.00967237515;0.00323062215000001;0.00173124841055556;0.000160640144444447;0.00915548386666666;0.00526598927777777;0.0195318522222222;-0.00419891455555556;-0.0235248122216666;0.0102238046944444;-0.234895477611111;0.0100224805277778;-0.129477944816667;0.0125516266666667;0.000181841427777776;0;0;0;0;0;0;0;0;0;2;0;0;0;0;0;0;3.3455477350391e-06;3.26045904235754e-06;2.96185080026349e-06;3.06148653839727e-06;3.04654339465441e-06;3.45832131390565e-06;3.1084381472933e-06;4.49127276008381e-07;2.96062222922905e-06;3.37845587123149e-06;2.7224383527188e-06;3.15568893033617e-06;2.95750898382961e-06;2.52444703389944e-06;2.24728888383954e-06;1.69785244039459e-06;62;58;58;22;38;42;48;82;30;56;38;8;58;22;34;34;0.3392401;0.3366852;0.34175844;0.331726;0.34023412;0.3578956;0.328254;0.1123055;0.3352355;0.3232575978;0.3124999;0.30464196;0.3041832;0.3071979;0.2805335;0.24921405];
x1_step1.gain = [139.173004187436;115.407077485786;117.727868309586;76.6291813659955;71.2917917325037;85.4430356087767;80.4499945595579;305.37088863692;51.7015713094159;42.061562267146;258.128534966318;4.81351499976794;139.814288215158;5.8978628985594;293.435698898557;162.354566071903;0.0344827586206897;0.0344827586206897;0.0333333333333333;0.0625;0.0465116279069767;0.0625;0.0350877192982456;0.666666666666667;0.0476190476190476;0.0224719101123596;0.0571428571428571;0.0555555555555556;0.04;0.0666666666666667;0.0666666666666667;0.05;317.0538594056;336.348829462108;66.5528116233113;60.8416055481542;223.367094654603;303.284547672891;40.7217754517284;5059.6569524456;14.3599647865311;136.673519189169;668.976155600331;2.35983923191997;1445.05612608761;3.73444705963461;597.627957917513;303.33961088472;0.027027027027027;0.0256410256410256;0.025;0.0178571428571429;0.0196078431372549;0.0208333333333333;0.0232558139534884;0.032258064516129;0.0185185185185185;0.0256410256410256;0.0204081632653061;0.015625;0.0263157894736842;0.0181818181818182;0.0196078431372549;0.0192307692307692;0.24388569585498;0.234018372819893;0.158141557109688;0.209999966127006;0.341631535312283;0.575874957920817;0.114713820363744;7.29799159271368;0.0733990574672893;0.168487000611603;0.6848604267805;0.0865622812359616;0.68732033575296;0.237214183950756;0.933229438704167;0.391651364472524];
x1_step1.ymin = -1;

% Layer 1
b1 = [-1.4918105526505538;-1.1433895324317755;0.75833269947169779;0.53105735677362609;0.34095723019323065;0.17309573473064899;0.65908097619142303;0.84486281565846022;-1.3829574747009559;1.436762531002181];
IW1_1 = [0.18339774354474131 0.097479864615569081 0.0069037168776100288 0.15732664786217693 0.066977069813583007 0.018390755966070205 -0.11150358390437973 -0.098187076230029841 -0.26783460430341305 -0.16501533843885549 -0.062449586728181933 0.20381536986166715 -0.063167617257108566 0.18414040031242868 0.082623829797703677 0.018313164769730383 0.072345528798417796 -0.2269764181508567 -0.1749604788446279 -0.10021289046429428 -0.12373423445371159 -0.12612452087536724 0.10034760767096586 0.029480521659381038 -0.094445258259997777 0.4692066322661822 -0.41189714761088209 0.039992275949608531 0.033886285052561915 -0.40433311348266876 -0.29750311936753121 -0.14933291163092091 0.20333456995938964 -0.2063133003448954 0.090128002041035285 0.17704604173603408 0.062449470660818227 -0.083040238842328265 -0.1792337646839883 0.12993584747369738 0.14901001554164986 0.00074540161135071455 -0.057702330024720291 -0.17030901707246643 0.028157121938951212 0.1974941973941228 0.24954027308259222 -0.022037894964756329 0.23221115104174145 0.29110585981013792 0.23581540262902895 0.31968289968232011 0.4229131793888633 0.043934828042234308 0.37573431834298221 -0.22500371782147235 0.42373456747427291 0.21242086922963002 0.074387093711792654 0.7188536011002824 -0.020374860802202618 0.1032586502367614 0.27920786499213085 0.03442965603604816 0.10878601700190793 0.12439209238739007 -0.13746690238724402 0.067674188753724523 -0.26894923227820533 -0.0011301117711741675 -0.14489077719203625 0.23377674535116416 -0.18231914818970235 -0.26464062025340246 -0.18066294134917352 0.19021476877239957 -0.016535874253776159 0.12433481115057186 -0.2125585765084852 0.045651136584714286;0.12106499130283263 -0.19402316166591313 0.050033540668415526 -0.17723601642752443 0.0020951268713524786 0.096403692635206553 -0.019452864875728094 0.25067756453265877 0.11401338582002452 -0.13183935548109973 -0.060583870459910573 0.22184089990759079 0.0099054553340137547 -0.27308506551094464 -0.21667047724962316 -0.02913830432021227 -0.11062498359827674 -0.052826673841827564 -0.81072024631813733 0.20374043964675867 -0.41779394437343409 -0.58407688302227634 -0.023034360729678904 0.10336098586361524 -0.38662445375198812 0.87957153320417303 0.0043022106120011719 -0.20769058923801817 0.27018033689701754 -0.083979731066979951 0.48502771832528541 0.36337933407760709 0.0098558749262008822 -0.19249928433476571 -0.30321454757881017 -0.020518435374295631 -0.0081706011309288003 0.022444476009834725 -0.14415835113008221 0.27379909288145771 0.1786455576056577 -0.1497331176997827 -0.053717132305249507 -0.19672568536548021 0.34057577384596183 -0.065742599907807078 -0.041253625703185144 0.26310482383839962 -0.011243337330448914 -0.12314987771551957 0.11704654724466461 0.032574158681826788 -0.11548731667718723 -0.03436728625663394 -0.091866638353911054 -0.13670874908372971 0.62067429697352727 0.79339759839786717 -0.31675054018685739 1.8632449311423678 -0.10960540170563977 0.58316340484831175 -0.086802976525742606 -0.47428098535194263 0.16100526850364918 -0.22065963104127689 -0.5349055095543207 0.43758915212929145 0.17815633207684942 -0.11173251166242917 -0.32089778174684913 -0.22251360325961886 0.095157696294662406 -0.15847882981172234 -0.029375362005595922 -0.0137099973892424 -0.042751091553620432 0.1801851561549952 0.02415866214799935 -0.010903662723769417;-0.15121163246527583 -0.21193211782373156 0.22037178712463637 0.23390509127071893 0.24460348645040683 0.23977976119462874 -0.18794966913475541 -0.15529587507642836 0.17645802914874736 -0.19569573788929798 -0.056821105642918195 -0.012534106798559153 -0.22128584983445956 -0.24998610566688981 0.088850250868762165 -0.028703295099409328 -0.070038433272725728 0.18385117565965464 0.23455801139718557 -0.27135691759982422 0.13092586669179551 0.028554100925443471 -0.21168497686636981 0.15925416068353521 0.23247327067297657 0.038043299174826607 -0.10044628656421503 0.083562056599606832 -0.34476829608325837 -0.1732775256174765 -0.21736531892422983 0.004038359211753783 -0.14068413140706221 0.015776806053336166 0.21873210625496989 0.046089685454766757 0.12599899530219788 0.15906475106106474 -0.15230530350604179 -0.10236055211876041 -0.046451001838571364 0.011864878023863703 -0.13161492801969549 -0.19486990044402325 -0.19765576393272963 0.13247735267362537 -0.076624944511454782 -0.031837179424701233 0.13333252561869152 0.26349125814233498 -0.21909774523168729 0.11626014718646813 0.26585650838782399 -0.023904033793494657 -0.11792938090278002 0.10335923083003121 0.07693633960061147 0.2339250624946296 -0.097946890059046346 -0.20607710620392919 0.038827811580804096 -0.11150730507248682 -0.038155765150675008 -0.049329514127454732 0.28723631428913804 -0.10415794790631938 -0.22337345570891773 -0.163285166478987 -0.10994969615671667 0.067873664019197616 -0.00048480023100970536 -0.10154572979319076 0.26139304267977764 0.080667415744752155 0.067866254201782716 0.16014676212044129 -0.31787297800597664 0.2384679424140306 0.093685570208491692 -0.2022011299708627;-0.042874994431353577 -0.033634137733005616 0.22185448134975674 -0.078463088842816289 -0.12522888904845028 -0.19556104003559194 0.058261691995411737 0.13678296562656572 0.20029163574650777 -0.21292861141653247 -0.23203523931426942 0.0011606558631688843 -0.20621154339462203 -0.18872598446936442 -0.17974652598470942 -0.11496820209288 0.22407621308256973 -0.011841474555564417 0.36001480305253719 -0.14988529800780673 0.26078260864045155 0.030994362033467022 -0.085841976522955679 0.17593039691507836 0.10041345834536834 -0.45199834082340873 -0.15158629259138939 0.22574826041860183 -0.032994853891216473 -0.20807293835864912 -0.014714146699497187 0.25991123196244476 -0.16305827086279717 -0.30331842094237033 0.2176965214214874 -0.26797103327961469 0.05769044111602379 0.18253713269426072 -0.16151761868672188 0.047713916444598804 0.10447773283598022 0.048790656633140868 0.074635779397583965 -0.074036528929043111 0.1141805988995003 -0.1053229147579726 -0.24057419360779345 0.29310453785777746 -0.28811643341882903 -0.43884582483401413 -0.13264204279072198 -0.37017319016971889 -0.10437218666428995 0.10309484923471854 -0.43989222852513427 0.016623617478177841 0.010538654078022481 -0.36090868118600894 -0.053093095884144785 -0.29571093917246932 -0.35996111946457948 -0.27295387690306877 -0.26264626142802261 -0.10573066586532004 0.16816426634137469 -0.089147525631261326 -0.20385752096363785 -0.016031641717366395 -0.1707641653618405 -0.21051527230049419 -0.29702933090618089 -0.23171852439295959 -0.018884588361225876 -0.07285593385632258 -0.028272406678175949 -0.35092970338495083 0.13461041846750121 -0.24978890799702363 -0.12418441024568817 -0.078468638622771231;-0.14039651532658828 0.30013732948226735 0.018885241613090634 -0.17493128261251883 0.12135160465490864 0.056351270047278197 -0.1593669155105987 -0.14067138085963082 -0.27920933529006176 0.23445530053598682 -0.17889801529834037 -0.078651213445511764 0.26885795067481127 0.079850666423022978 -0.079604228200186658 -0.00031639129658290869 0.16006125376602273 -0.19874515421280384 -0.14137894807419629 -0.26925911226652521 -0.11864882425090448 -0.011779236137438399 -0.18213098900807717 0.09570619508763531 -0.054296064683539862 0.31053526698543638 0.085574516768705186 -0.15313230934518618 -0.12143705369026044 -0.22714880598570925 -0.10934853637221126 -0.30578621308023285 -0.18466052689295825 -0.086636757078452586 -0.017426782064032836 -0.22241648448207368 -0.075498174717032088 -0.14465255134517868 -0.21673750771484562 -0.32144608889182125 -0.060102268693774302 -0.28641612410254536 -0.36774942239518987 -0.043017874988496824 -0.33536944328539509 0.048605333530253307 0.12026226155215951 -0.34990545068581558 0.18755186608066635 -0.16489891623318959 -0.21628957315243064 -0.042751187844323787 0.24051819637473063 0.18098006867524899 0.089251972123928824 -0.21367276636880742 0.2776993601312388 0.0082074990539861645 0.15276795571107324 0.2650787713702164 0.023747154346442669 0.15476327473268789 0.10663783004254104 0.083165134364543869 0.086973574742823093 -0.11193072637818721 -0.031948250282821035 -0.18328097494382373 -0.35235733697748328 -0.06886629231435451 0.11675374117471594 -0.24413701323973527 -0.43182616220782416 -0.00022269256452542443 -0.057666784654409664 -0.44542325755678686 -0.24296226422728531 -0.2544211959986985 -0.2087126713933152 -0.12039820655234977;0.084511446730778331 -0.058536580399036496 -0.19990242576260794 -0.13418795781015239 0.13883558809794291 -0.026532958339913797 0.11093285347240277 0.27603905823811409 -0.044604795923413786 0.020239455027978713 -0.18315283207379096 0.22014858039919277 0.27850745826617929 0.11489725084527705 0.12696424099330508 -0.0019346535213075578 0.088025309626537943 -0.031269438080638319 -0.29372708288512384 0.38660023365533214 0.46486822084064833 -0.35735985451223429 -0.032476081599687838 -0.15143783330501309 -0.1407501929760972 0.36887527882460081 0.47532595079674628 0.58664645995870035 0.16922170540278669 -0.33553394649449853 0.33493060553755288 -0.058374102895360394 0.26115235522991664 -0.16235007739697349 -0.11636708402882884 0.024719449610134388 -0.25556173555046519 -0.26242262374017999 -0.015085671885090576 0.085030890320883859 -0.38191386660172177 0.055608687093120494 0.30688012109760643 -0.031742281607004041 -0.080954781931622588 0.14417501428343793 0.086017432871786884 0.033224995556298216 0.12731266198824714 -0.030068906533265542 -0.064487580818619661 -0.63589445311446158 -0.16974412948452824 0.084374342701194482 0.23176650691580794 0.03287291914325894 0.65649227831409107 0.32588748289759856 -0.27828372821138242 0.40789292303257657 -0.54902934141536808 0.29005214095442178 -0.17483590976121605 -0.67672607695734943 0.024990902839372508 0.1391320899301387 -0.1457568444596308 0.4225387428578144 0.41894345002822703 -0.28786857766735896 -0.22943483565674669 -0.22162766260258354 0.036882176230254742 0.015296977284527103 0.32402135548116129 -0.32934235248500576 0.33886048746995606 -0.13410642763882297 0.10421223116711073 0.072472779924986588;0.082165251968823072 0.10751488657709478 -0.091818040947019841 0.13421716405825548 -0.13482534854496669 -0.24515624207958187 0.14018584840106124 -0.43359627754979341 -0.10208412734307784 0.060458102203685901 -0.11734738439813909 -0.023971682290105149 -0.013784306107732446 0.074862684659828233 0.30907788927932661 0.21073745348398157 0.33043367955133368 -0.42745877762910262 0.26058359409257209 0.32067126255410527 0.11897372445754269 0.10900152040828864 -0.19511952724097326 -0.0076957415106346395 0.23816197924586247 -0.12515485227696976 0.30917148339169376 -0.28264852441132715 0.36265624936191021 -0.0067238617273361403 0.027178214100253551 0.040720264380077538 -0.041984251170825299 0.19966269024749922 0.077682209869015389 -0.33815870039905344 -0.29173523531174939 -0.17848728120442997 -0.17381698830693437 -0.072191014423673067 -0.10156959781533224 0.10198422218303557 -0.18863279721491288 0.025940925271552537 0.06578583038743531 -0.29224210528746869 -0.17524562346864075 -0.27554247118558955 0.81433991209896395 1.0588944551887947 0.35107208491550751 -0.53062470139386164 -0.49252523037801876 0.25075617826258884 1.0111126635286605 -0.24744773337823309 -0.33714546961031594 -0.24339809486348046 0.17745071674781099 -0.87704779643288622 -0.33915368510051169 0.58879941868259167 -0.04713990262213847 0.23578063073256905 -0.022407971688861519 -0.12836486575379091 0.6771979682140612 0.11563319753299861 -0.0061328525798728826 -0.17604641892680925 -0.26925271087517311 -0.038633946720716274 -0.22852413912037245 0.45525221916442715 -0.20321120362084391 0.35643735941941279 0.31679709106924436 -0.04428722751864949 -0.17975700216050403 -0.039545056154300075;0.11858575202520275 -0.15744770282053824 -0.14019960292233419 -0.0074440642018637673 0.02492836883115504 -0.090633717079700596 0.14159837678802745 -0.07316723864362315 0.16981401778641894 -0.20475309568810252 -0.1442867942858061 -0.21308168775086106 -0.25441800037404683 -0.032971545575095372 -0.22525920031167684 0.16443036002314229 0.0073770067280801745 -0.066989759286696759 -0.10834023130168184 0.065839331232973961 0.027211092087925871 0.22037051556773221 0.077418901510896962 -0.21761326356378941 0.0039189900586492649 -0.0052705006407872592 -0.13774691203775966 -0.17080661123128066 0.12219869647466441 -0.1329665295977254 0.31433137596658267 -0.13340146802668101 0.15735552244120216 0.0038833258938745139 -0.27308275996584697 -0.18034831149695779 -0.13026563798439453 0.015236257797484975 0.16437867340264431 -0.28900244959977245 -0.11037953320501151 -0.30997407472891686 0.25368609528010166 0.037718436843517548 -0.018312823157699151 0.019434830822246795 0.046447083436608513 -0.22377120323805841 -0.21831809543329506 -0.0037294205355801477 -0.066208232013885163 -0.25752167008656801 -0.22036751182756475 0.28924864930966826 -0.099842853979994164 -0.2520923634005896 0.22231135462964779 0.19169935791505599 0.19219504168070811 -0.14599680225512832 -0.23075178195509419 -0.0036073734172181234 -0.20980813620615058 0.050479639432573595 -0.097180448392201829 0.157346570046031 -0.27249798030009292 -0.19596554981374764 -0.015364131542652346 -0.20813278914311162 -0.15737059268833348 0.12662973271356195 -0.1620735595837357 -0.16531218969582398 -0.16189466032140967 0.20718626267455958 0.10506673145601229 0.012341895300553149 0.10495007883659201 -0.1702376484248434;0.10643963851832222 -0.39060748418017416 0.10393298632131526 -0.14327263945744537 0.026654109583526573 0.063849203917176453 -0.0033798721889132604 0.1039496768175264 0.037925164266456125 0.33762682471137406 0.25635003533036915 0.07715247199137866 0.42228741099520961 0.07324813960601316 -0.031636369586339849 0.24628467588740433 -0.40384297442723383 -0.96016909861391753 0.50636205027314785 -0.3649373793453578 -0.26744709666868161 -0.60191056230987272 -0.36952097150578606 0.087312813771265319 0.020474790306807468 -0.7920775145853246 0.019186962546943263 0.73467903250206512 -0.35944094405034427 -0.6719118029961676 0.1323468588713719 -0.55104791726396951 -0.039658937510647141 -0.40475146094003756 0.65636026230686617 0.18654651335428396 -0.17836896247296347 -0.0391772194790133 0.45405094867569196 0.17125567534084726 0.73233654779793811 -0.26039379917733918 0.058417731952174486 -0.92343106964750754 0.0033081936438507584 0.28119364271198727 0.36417835186315539 0.15880295572680753 0.2769185738236053 -0.039948697706674391 -0.18441625323991556 0.44936715897510232 1.5192589554472271 0.63339200551614727 0.58832091155770971 -0.060187868491706077 -0.22048816068028895 -1.2285788950343779 0.5783511940907019 1.3732121438550824 0.37871839692503384 0.47199236918102783 -0.080804371554555596 0.4091961155669871 -0.61412629967108612 -0.37958490216786683 0.5940254882314373 0.0099339132559066214 0.15792940953632731 -0.32645756042683877 0.22740132173849709 0.07524813989724996 0.71657208108942549 0.29777765337493795 -0.019113659951586235 -0.82791995833223775 0.13553117622665958 0.20279852806418108 0.24128581241115168 -0.14030546706452471;0.10290521230123477 -0.12922622172784479 -0.13405184483444818 0.18349279686981032 -0.24610222312456123 0.16019108192520051 -0.23145251889539345 0.25832666611747884 0.22833552602031107 0.067455315196780122 -0.25872435049515463 -0.061107229868349294 -0.086133698898801139 -0.11164482808965759 0.14876649042783388 -0.069899886165228256 -0.087851070010749474 0.26278211174295035 -0.10837874097165175 -0.18589298326059062 -0.024387726855485584 0.25259826979637551 0.11964319185796775 0.14098180653229861 -0.14359258768698291 0.086828969647318385 -0.044106515851476229 -0.12001062601594133 -0.08437973275849521 0.27102034232790001 0.056640087003513168 -0.014580723701389076 -0.054590313224453603 -0.096890757106143671 0.21915325169866037 -0.26112505699824984 0.082436484859715956 -0.017151006926145997 0.25132601892314171 -0.14902498451609683 -0.26988155222210047 0.13954126043782217 0.10476501315368165 0.12747319424665138 0.058448230930825497 0.028173136957052074 0.075095541397749058 -0.071638750988868571 -0.22318661302805401 -0.18674980445025446 -0.071516055004263196 0.022692990904737979 0.27192757240633503 0.19852469660455299 -0.24581557915232652 0.031965264118182637 0.26554007249246536 0.05985399271195279 0.10256580560489917 0.0036635474494251365 -0.1374411995664501 -0.030561715248253633 -0.19208815077427627 -0.18523253895293548 -0.24052634746095258 0.21513513243483082 0.040881173695614482 -0.13493810177685822 -0.25664849580580074 -0.20375184123491827 -0.20793110620124858 -0.22675364564823702 -0.26593246784013042 0.0447056447022873 -0.064063589202074514 -0.17521061181067596 -0.20802481202736547 -0.061977880212524171 -0.2374868700938414 0.094177575306093816];

% Layer 2
b2 = [-0.25665361892986699;-0.88868265844114258;0.40267025294246744;0.42778960790144399;0.25024090827983264];
LW2_1 = [-0.79406903496103787 0.56904578395403183 -0.43054130181242756 0.42859557513176827 0.026940364518583421 2.5451243886468791 -0.20654054185226053 0.55317556635693999 -1.9180466571069597 -0.19972215064646698;-0.49415554682916446 -1.8751628004242753 -0.45329555662176491 -0.10894508346389319 0.03136492123492364 -1.5423286514733847 1.2319582163507592 -0.7789556334050417 -3.4903152818134724 0.74479603190633215;1.6699702038813924 2.09558656791812 0.14462300576479553 -1.4108240835052277 -1.2004584659128901 -0.53696150294006106 1.7442443629733821 -1.1434543452949284 1.4587543978221313 -0.014083991314910279;-0.08248117642432834 -2.162277545088803 0.087530507825052895 -0.0047078152930607187 -0.026465802562449642 -1.5954047370329143 -0.22864626537874386 -0.78279994352810578 2.2416492810311679 0.11864731497160112;0.67426277925717859 2.152317074337879 0.66774723491177568 -0.28603949932478634 0.58768552323189283 -1.7662509916140476 -2.657751138793957 -0.58158387550027935 -0.86009713099880702 -0.4749190322464677];

% ===== SIMULATION ========

% Dimensions
Q = size(x1,1); % samples

% Input 1
x1 = x1';
xp1 = mapminmax_apply(x1,x1_step1);

% Layer 1
a1 = tansig_apply(repmat(b1,1,Q) + IW1_1*xp1);

% Layer 2
a2 = softmax_apply(repmat(b2,1,Q) + LW2_1*a1);

% Output 1
y1 = a2;
y1 = y1';
end

% ===== MODULE FUNCTIONS ========

% Map Minimum and Maximum Input Processing Function
function y = mapminmax_apply(x,settings)
y = bsxfun(@minus,x,settings.xoffset);
y = bsxfun(@times,y,settings.gain);
y = bsxfun(@plus,y,settings.ymin);
end

% Competitive Soft Transfer Function
function a = softmax_apply(n,~)
if isa(n,'gpuArray')
    a = iSoftmaxApplyGPU(n);
else
    a = iSoftmaxApplyCPU(n);
end
end
function a = iSoftmaxApplyCPU(n)
nmax = max(n,[],1);
n = bsxfun(@minus,n,nmax);
numerator = exp(n);
denominator = sum(numerator,1);
denominator(denominator == 0) = 1;
a = bsxfun(@rdivide,numerator,denominator);
end
function a = iSoftmaxApplyGPU(n)
nmax = max(n,[],1);
numerator = arrayfun(@iSoftmaxApplyGPUHelper1,n,nmax);
denominator = sum(numerator,1);
a = arrayfun(@iSoftmaxApplyGPUHelper2,numerator,denominator);
end
function numerator = iSoftmaxApplyGPUHelper1(n,nmax)
numerator = exp(n - nmax);
end
function a = iSoftmaxApplyGPUHelper2(numerator,denominator)
if (denominator == 0)
    a = numerator;
else
    a = numerator ./ denominator;
end
end

% Sigmoid Symmetric Transfer Function
function a = tansig_apply(n,~)
a = 2 ./ (1 + exp(-2*n)) - 1;
end
